float  conv1_weight[54] = {0.2513853f, -0.1679187f, 0.02875851f, 0.3424672f, -0.2979235f, -0.05395226f, -0.1947475f, 0.05105801f, -0.21265344f, -0.061543386f, -0.26565728f, 0.2088283f, 0.069249205f, -0.08946447f, 0.22491264f, -0.2853873f, -0.33745492f, 0.03926698f, 0.37391865f, 0.13484676f, 0.04250788f, -0.25281167f, 0.34767243f, 0.076182775f, 0.10589f, -0.24725524f, -0.1470677f, 0.7069588f, 0.563064f, 0.62338394f, 0.305807f, 0.37288064f, 0.69977325f, 0.59252584f, 0.121644706f, 0.5167673f, 0.7785605f, 0.52230376f, 0.41414374f, 0.7889639f, 0.37721196f, 0.16705382f, 0.59133667f, 0.1314753f, 0.5435683f, 0.12377137f, 0.41792643f, 0.35358414f, 0.16029157f, 0.1759863f, 0.4177969f, 0.30910304f, 0.35088095f, 0.374451f};

float  conv1_bias[2] = {0.20946674f, -0.16996764f};

float  conv2_weight[72] = {0.23887008f, 0.09659284f, 0.45300335f, 0.47271243f, 0.29144028f, 0.13249832f, 0.15662965f, -0.12305496f, 0.1285438f, -0.25887397f, -0.3333948f, 0.010828435f, 0.024648296f, 0.24526855f, 0.1802222f, 0.3243589f, -0.26380432f, -0.27694193f, -0.0150680095f, 0.45897147f, 0.41149226f, -0.0030482365f, 0.32332188f, 0.3075618f, 0.011764645f, -0.21524812f, 0.24106854f, 0.0005318506f, 0.14272426f, 0.17777131f, -0.15972944f, -0.021355338f, -0.08904815f, 0.07532375f, -0.12171148f, 0.042909194f, 0.2679056f, 0.48865592f, 0.12373144f, 0.070893064f, 0.372942f, 0.18014695f, 0.14579412f, 0.28890452f, 0.06518957f, -0.1405934f, -0.07894894f, 0.22424963f, -0.13770857f, 0.13390326f, 0.25639328f, 0.11737546f, -0.2348777f, -0.30338335f, -0.18195668f, 0.29646194f, 0.2733442f, 0.26843336f, 0.3493697f, 0.20495915f, 0.075215116f, 0.09709673f, 0.31768113f, -0.16762514f, 0.026164109f, 0.053722817f, -0.034102373f, -0.24434246f, 0.30319762f, -0.2705093f, -0.024990145f, 0.24765247f};

float  conv2_bias[4] = {0.121988416f, 0.04369574f, 0.18955907f, 0.12287856f};

float  conv3_weight[144] = {0.28724772f, -0.0838004f, 0.17976865f, 0.11346397f, -0.44132584f, 0.46192786f, -0.33592835f, -0.2471481f, 0.0337397f, 0.31709334f, 0.39409417f, -0.24588935f, 0.18498899f, 0.32605216f, 0.010872853f, -0.19034281f, -0.08426723f, -0.06564142f, 0.42877537f, 0.40162513f, -0.099937424f, 0.30801386f, 0.22759023f, 0.33796751f, -0.2815718f, -0.13852546f, 0.0050643836f, 0.14202826f, 0.44055918f, -0.18751657f, -0.16278109f, 0.5700673f, 0.00040280912f, -0.21197754f, 0.2775001f, 0.2959228f, -0.63312775f, -0.22238426f, -0.2452429f, 0.08839103f, 0.06743774f, -0.104985714f, -0.36330384f, -0.28791562f, -0.0372333f, -0.16666223f, -0.11995986f, 0.34250915f, 0.18298839f, 0.13059953f, -0.18418129f, 0.008823147f, 0.043808896f, -0.24569646f, -0.02318837f, -0.4101146f, 0.004102351f, -0.18999347f, 0.031867f, 0.15511188f, 0.5649479f, 0.12545148f, -0.05155169f, 0.2576761f, 0.15631469f, 0.46596193f, 0.1660402f, -0.100520276f, -0.025299273f, -0.012580093f, -0.43365943f, 0.47833297f, 0.09081877f, 0.036606427f, 0.2486906f, -0.03537705f, -0.25194296f, 0.22826521f, -0.41834888f, -0.18182772f, 0.06402648f, -0.23385909f, 0.34839544f, -0.121070005f, -0.19811213f, 0.004837485f, 0.26888025f, 0.069005124f, -0.15383972f, 0.04588778f, -0.019550066f, 0.3832497f, 0.054146826f, 0.4972504f, 0.36894956f, 0.16189976f, -0.10315883f, 0.0051946514f, 0.78454864f, -0.27930796f, -0.120097324f, 0.024202444f, -0.25051087f, 0.3665654f, 0.5567927f, 0.021365356f, 0.3233339f, 0.65415365f, -0.010103151f, 0.13143887f, 0.21311782f, -0.36892262f, 0.24947692f, -0.036114227f, 0.23312373f, -0.074272655f, 0.094815046f, 0.1315845f, -0.020763133f, 0.19055988f, 0.34071368f, 0.07584615f, 0.29275295f, -0.21870965f, 0.35609165f, -0.009613733f, -0.32617363f, -0.22149764f, -0.17253417f, -0.13448471f, -0.070390165f, -0.3418573f, 0.09275098f, -0.13109522f, 0.04215925f, 0.02014629f, -0.18542165f, -0.14422482f, -0.20632048f, -0.33774075f, -0.15574835f, 0.20145698f, -0.16835988f, -0.18229716f};

float  conv3_bias[4] = {-0.0639079f, -0.101148516f, -0.050556976f, 0.124513194f};

float  dense1_weight[3072] = {-0.07143612f, -0.16518882f, -0.14804079f, 0.104690686f, 0.22071485f, -0.2330769f, 0.022463609f, 0.0964013f, 0.0063896347f, -0.23305748f, 0.21458746f, -0.17321806f, 0.08542048f, 0.1666498f, 0.21046896f, 0.26911503f, 0.035735264f, -0.21996343f, 0.063292585f, -0.038407873f, 0.07598292f, 0.046442408f, 0.20421804f, -0.057088885f, 0.07990077f, 0.30085298f, 0.015257719f, -0.00021379296f, -0.16785915f, -0.029103719f, 0.114442654f, 0.04667208f, 0.3067206f, 0.008325412f, -0.1417082f, -0.24265917f, 0.08183078f, 0.13912086f, 0.22135642f, 0.20246488f, 0.10405805f, 0.06917366f, 0.16853844f, 0.016319042f, 0.07462935f, 0.30116576f, 0.13492036f, 0.18456796f, -0.24432604f, 0.20330164f, 0.115140446f, 0.09451453f, -0.23666888f, 0.030681638f, -0.23939632f, 0.079475485f, -0.16109826f, -0.045261104f, -0.09231015f, 0.33815357f, 0.20018551f, -0.20746839f, -0.14657773f, 0.04020735f, 0.096298166f, 0.028725855f, -0.2624099f, -0.1142722f, -0.13894992f, 0.33827844f, -0.11674532f, 0.29070392f, 0.012711845f, 0.016139701f, -0.10663955f, -0.19697589f, 0.24844708f, -0.4051646f, -0.19016343f, -0.30104238f, -0.038612362f, -0.04686483f, -0.024056796f, -0.11523591f, 0.4560395f, 0.20265606f, 0.17846352f, 0.007023854f, 0.11838964f, 0.12164931f, -0.02574502f, 0.09424651f, 0.10111139f, 0.08301336f, -0.1685869f, 0.3043149f, -0.2841575f, -0.108894736f, -0.04106108f, 0.21017714f, -0.26401573f, 0.09462365f, -0.18394707f, -0.10751067f, -0.17443264f, -0.014629109f, -0.16096266f, 0.0067032767f, -0.04080869f, -0.04610947f, -0.007847038f, 0.20694385f, -0.06452938f, 0.07869874f, -0.12622346f, 0.15164632f, -0.0715875f, -0.036438327f, -0.16791093f, -0.011370779f, 0.0149205625f, -0.27496094f, 0.07742117f, -0.14204617f, -0.34817487f, 0.04657113f, 0.12657483f, 0.21613301f, 0.32089394f, -0.24257943f, -0.028298397f, 0.47750372f, -0.17106356f, 0.002649888f, 0.03618076f, -0.09807096f, 0.1470656f, -0.1668699f, 0.12597285f, 0.117529646f, 0.23466453f, -0.169055f, -0.14058538f, -0.06365027f, 0.21791978f, 0.2932359f, -0.023846537f, 0.2391277f, 0.18716182f, 0.0019831348f, 0.34339726f, 0.32037655f, -0.4024317f, -0.25282222f, -0.23810734f, 0.35736734f, 0.056060012f, -0.45197675f, -0.20194487f, 0.28536132f, -0.10493136f, 0.20102271f, -0.038337078f, 0.09881776f, -0.19555868f, -0.066131085f, -0.020825492f, 0.4740975f, 0.1065934f, -0.059436683f, 0.049413256f, 0.2388532f, -0.021746071f, 0.020195993f, -0.025096698f, -0.015547862f, 0.2508319f, 0.137827f, -0.03401566f, -0.022582723f, -0.14612256f, -0.22386259f, -0.12012185f, 0.14465402f, 0.19861415f, -0.034627628f, -0.2978037f, -0.26641548f, 0.02560107f, 0.32221907f, -0.16697489f, 0.23332654f, -0.064587735f, 0.042064678f, -0.033509865f, -0.19120543f, 0.011409104f, 0.023537178f, 0.26345164f, 0.22325589f, 0.042772982f, 0.16401462f, -0.07771632f, -0.17684335f, 0.06716842f, 0.090154685f, 0.18631758f, 0.24756451f, 0.055488598f, -0.11497818f, 0.20343886f, -0.19404075f, -0.30498356f, -0.010000065f, 0.12137372f, 0.22122158f, 0.13075742f, 0.15622704f, 0.026819015f, -0.25471f, -0.08015163f, -0.17123777f, 0.33826485f, 0.117834345f, 0.22837283f, 0.116179906f, 0.175578f, 0.0021345965f, -0.0072806356f, -0.12146188f, -0.124458276f, 0.06947212f, -0.23177558f, 0.04487682f, 0.24383953f, 0.16642235f, -0.11673433f, -0.045755345f, 0.019420758f, 0.0004388518f, 0.069995925f, -0.07352883f, 0.0055081937f, -0.21204521f, -0.11704069f, 0.03170115f, 0.057329506f, -0.09089156f, 0.09200906f, 0.19887306f, 0.28791708f, 0.3021292f, 0.22288236f, -0.12532195f, 0.24244525f, -0.33149505f, 0.35121635f, 0.00869894f, 0.056646746f, 0.26841873f, 0.04499748f, -0.14658825f, -0.049916927f, -0.27215597f, -0.009385024f, -0.20926875f, -0.06535993f, -0.028752737f, 0.19412309f, -0.22713219f, -0.0890103f, 0.1748553f, 0.25072542f, 0.020787152f, 0.08431265f, 0.21657954f, -0.106071025f, 0.22882001f, -0.060807925f, -0.0072503868f, -0.07552558f, -0.30500066f, -0.2249975f, -0.08692619f, 0.29248008f, 0.0064166905f, -0.007135709f, 0.19456327f, -0.13064109f, -0.114943996f, 0.027804693f, 0.14304695f, 0.14312719f, -0.15033934f, 0.0634155f, 0.2649419f, 0.1264407f, 0.16459358f, 0.049510848f, 0.03052927f, 0.049960148f, 0.23040459f, -0.09914503f, 0.15336993f, 0.40837178f, 0.031878356f, -0.09623957f, 0.014614421f, 0.091732286f, -0.16867085f, -0.20132647f, 0.1212433f, 0.39648253f, 0.24864307f, -0.17825484f, 0.05879729f, -0.134412f, -0.027446516f, -0.07753228f, 0.37435895f, 0.3071409f, -0.2555523f, -0.15284744f, 0.09880899f, -0.07296868f, -0.12108677f, -0.33899805f, 0.2014375f, 0.090644605f, -0.15833709f, 0.09050742f, -0.0051430077f, 0.0690512f, -0.28478995f, 0.11186682f, -0.33082798f, 0.22834747f, 0.21777095f, -0.011016551f, 0.042956356f, 0.23820736f, 0.30004722f, -0.23513901f, 0.102462016f, 0.1384597f, -0.050418943f, 0.21478535f, 0.08959949f, -0.09327326f, -0.054736763f, -0.12048814f, 0.23381826f, -0.189462f, 0.06983145f, -0.027606674f, 0.06240396f, 0.07265307f, 0.11166594f, 0.15440103f, -0.10843151f, -0.100687414f, 0.30619067f, 0.11313381f, 0.10149182f, -0.08951824f, -0.004414125f, 0.31139088f, 0.15343332f, -0.015828347f, 0.084942654f, -0.045806896f, -0.021330494f, -0.1657621f, 0.06250848f, 0.26438048f, 0.15685964f, 0.12839924f, -0.120743796f, -0.005277983f, -0.039655074f, -0.2806344f, 0.15213686f, 0.17381509f, 0.031087069f, 0.004190717f, 0.09015836f, -0.24223931f, 0.13999084f, -0.30682027f, -0.13040768f, -0.22356404f, -0.33169016f, -0.07769287f, -0.1897184f, -0.011205759f, 0.006163726f, 0.18558376f, 0.14541066f, -0.123000465f, 0.05260302f, -0.19631885f, 0.2901362f, -0.07270008f, 0.29005185f, -0.004139463f, -0.0046335687f, -0.12258058f, -0.17086855f, 0.015493407f, 0.084790125f, 0.02267297f, -0.03610459f, 0.16659875f, 0.27111128f, -0.0054710405f, 0.06818934f, 0.038786404f, 0.24176383f, 0.11649999f, -0.3137442f, -0.13958265f, -0.13073894f, 0.023979904f, 0.12913582f, 0.1884351f, 0.10290184f, 0.19508089f, 0.22073635f, -0.0141447745f, 0.030671962f, -0.06677106f, -0.15602101f, 0.076946326f, -0.09243319f, 0.09918795f, 0.20492528f, -0.17677206f, -0.15713447f, -0.1078526f, -0.121728614f, 0.21036507f, 0.28383625f, 0.12295876f, -0.16539039f, -0.001149664f, 0.15515077f, -0.16008309f, -0.19105108f, 0.15389672f, -0.10128799f, -0.0367417f, 0.006758688f, -0.14865467f, -0.09093575f, 0.045386355f, -0.04602238f, -0.0008262732f, -0.09617474f, 0.26841575f, 0.13256821f, 0.121838436f, 0.20094313f, 0.13239475f, 0.16820954f, -0.23617135f, -0.08497437f, 0.14761794f, 0.18121514f, 0.09544168f, 0.21739537f, -0.17661591f, -0.09561908f, 0.048772454f, 0.28661638f, 0.18876745f, -0.075402424f, 0.11887966f, 0.023372686f, 0.024331426f, -0.06561631f, -0.17747334f, -0.04892607f, 0.15505095f, -0.13519719f, -0.0982402f, 0.07203291f, 0.112474635f, -0.006224853f, -0.0363801f, -0.19067124f, -0.019585187f, 0.006147684f, 0.106855035f, 0.057092726f, 0.04823422f, 0.12162222f, 0.117739335f, 0.0899724f, 0.27369234f, -0.19732203f, 0.12072728f, -0.001559316f, 0.053494852f, 0.15250085f, 0.18380117f, 0.16767709f, 0.23744513f, 0.074667245f, -0.18869264f, -0.015168281f, 0.2817324f, -0.0055877394f, 0.25389683f, 0.11869977f, -0.11635282f, 0.23957776f, -0.29193377f, 0.338255f, 0.030847471f, -0.059534095f, 0.24751146f, 0.0319626f, 0.16928855f, 0.066024475f, 0.094664305f, 0.0067640855f, 0.15947822f, -0.19098327f, 0.0068559987f, 0.18711576f, 0.05106941f, -0.14847866f, -0.089033715f, 0.08290581f, -0.21856135f, 0.08568925f, 0.10870948f, 0.060305767f, -0.013816486f, -0.1332584f, 0.24897559f, 0.007128837f, 0.17120822f, 0.2982873f, 0.20825036f, -0.08431346f, 0.1390136f, 0.053308878f, 0.15298223f, 0.17124133f, -0.22192699f, 0.4198984f, -0.013556684f, 0.12249289f, 0.11643867f, -0.05201695f, 0.024489392f, 0.15270229f, 0.06451186f, -0.19460115f, 0.20276146f, -0.2991457f, -0.15621452f, 0.16963814f, 0.1656496f, 0.04084045f, 0.038057156f, 0.05660557f, 0.048986234f, 0.14400026f, 0.07877294f, -0.09195507f, -0.12507167f, -0.10719691f, 0.045380704f, -0.03914994f, -0.21021377f, -0.2112021f, -0.10036639f, 0.04684144f, -0.11369542f, 0.032234762f, 0.18179931f, 0.20636469f, -0.18243255f, -0.0751461f, 0.10217801f, 0.110823825f, 0.12439074f, -0.22081666f, 0.29634842f, 0.02160441f, -0.23310083f, -0.20233601f, -0.28051883f, 0.23025285f, 0.40430593f, 0.20372802f, 0.33426926f, -0.091249615f, -0.28825766f, -0.21530902f, 0.094924f, -0.09534344f, -0.04890662f, -0.10369051f, -0.2511003f, 0.18415438f, -0.22933568f, 0.20371518f, 0.2934846f, -0.11879883f, -0.26168367f, -0.028188819f, 0.021297412f, -0.08713542f, -0.32098305f, -0.28408808f, -0.1830697f, 0.48443377f, -0.19562759f, -0.1268378f, -0.075510986f, -0.069507815f, -0.076920554f, 0.12113698f, 0.07148244f, 0.009531101f, -0.11006099f, -0.27969268f, 0.027264759f, -0.025690552f, -0.17348719f, -0.12280336f, 0.009547834f, -0.06837225f, 0.32111984f, 0.2749613f, -0.14100195f, -0.01340798f, 0.121766075f, -0.16291955f, 0.07645539f, 0.18076284f, 0.061206877f, -0.25640184f, -0.22739704f, 0.022621937f, 0.025783818f, -0.18070197f, -0.03587224f, 0.04710635f, 0.30176756f, 0.15264098f, -0.14704484f, 0.19832927f, 0.047388732f, 0.047379382f, 0.08201381f, 0.23736049f, 0.18609744f, 0.0077907066f, 0.058937605f, 0.061483502f, -0.14464884f, 0.08389816f, 0.15719624f, 0.27552018f, 0.18795043f, -0.17764398f, -0.0050310357f, -0.16929106f, -0.17975423f, -0.20750013f, 0.053193472f, -0.25006974f, 0.15977868f, -0.018290557f, 0.03751043f, 0.028291302f, 0.05152617f, 0.23143247f, -0.07175817f, 0.27590597f, -0.23045023f, 0.18163736f, 0.0040307464f, 0.19502982f, 0.23710693f, 0.113245994f, -0.10306092f, -0.09898815f, 0.06132465f, -0.13507138f, 0.017487813f, 0.2020243f, 0.035573117f, 0.21400477f, -0.020899441f, -0.22621576f, -0.0037667518f, 0.30886406f, -0.13039774f, -8.173277e-05f, -0.12498214f, -0.26391068f, -0.026962701f, 0.14887072f, 0.19751939f, 0.12461963f, 0.06922273f, -0.025544379f, 0.18069892f, -0.07493616f, 0.2752963f, 0.13780735f, -0.18084462f, -0.1206738f, 0.06447898f, -0.013510801f, -0.27271184f, -0.17847821f, -0.19108212f, 0.22885212f, -0.16284017f, -0.03320019f, 0.170065f, -0.19055587f, 0.16398941f, 0.26565176f, 0.017727096f, -0.03223229f, 0.05610045f, 0.14599274f, -0.162361f, -0.22564766f, 0.05147778f, 0.2717421f, 0.07158313f, 0.008313765f, 0.04574459f, 0.14349207f, 0.017169062f, -0.15011585f, -0.12888998f, -0.27748656f, 0.19445324f, 0.08702288f, -0.10230786f, -0.029909514f, 0.14861012f, -0.08047868f, -0.28058937f, 0.10357799f, -0.06090867f, -0.106380925f, -0.069240615f, 0.26492238f, -0.11470252f, -0.05147651f, -0.17180471f, -0.09289017f, 0.25636867f, 0.30798966f, 0.13297953f, -0.011391081f, 0.19768208f, -0.19742495f, -0.044710975f, -0.21121399f, 0.018528644f, 0.1742422f, -0.011305873f, 0.22606382f, 0.22193202f, -0.05634862f, -0.18724638f, -0.15186156f, -0.14694422f, -0.26931444f, 0.23951513f, 0.07472419f, -0.18834746f, -0.21316321f, 0.03355793f, -0.1783027f, -0.035073053f, 0.18701673f, -0.015153856f, 0.17202877f, -0.08070939f, 0.01964947f, -0.053403802f, 0.1355194f, -0.1390371f, 0.14068548f, -0.1359151f, 0.06950795f, -0.10262379f, -0.12399602f, -0.12007329f, -0.200234f, 0.036719047f, -0.05718222f, -0.15394413f, -0.08048386f, -0.06909104f, 0.051296506f, -0.22024259f, 0.13323614f, -0.051964577f, -0.0068005025f, 0.12037433f, 0.0499283f, 0.055948492f, 0.088386014f, 0.071510166f, 0.23850094f, 0.06275502f, 0.17057541f, -0.11750051f, 0.09091065f, 0.3218116f, -0.093877584f, -0.13249303f, 0.11858349f, 0.05924444f, -0.15575886f, 0.13097483f, -0.030285507f, 0.0061813365f, 0.28376314f, 0.28754714f, -0.121782325f, 0.09442035f, 0.10001508f, 0.09376707f, 0.076144256f, 0.14811945f, 0.22267681f, 0.05707141f, 0.010407001f, 0.21758713f, 0.16148318f, -0.087736644f, 0.05846652f, 0.02124308f, -0.1258829f, -0.13253339f, 0.119459935f, 0.024468794f, -0.012382285f, 0.032930467f, 0.07257235f, -0.281092f, 0.14944357f, 0.09841489f, -0.07735275f, 0.19832285f, -0.29770237f, -0.07544026f, -0.16150557f, -0.16751556f, 0.26495245f, -0.22927737f, 0.16823319f, 0.20674889f, 0.29626617f, -0.111224785f, 0.041301098f, 0.15011586f, 0.04380833f, 0.083713025f, -0.40012753f, -0.22666991f, -0.018361812f, -0.1334915f, -0.054508746f, 0.4190678f, -0.3118598f, -0.16381823f, -0.08190069f, 0.1345852f, -0.058720134f, 0.10127306f, -0.21439573f, 0.07241538f, 0.24679613f, -0.1619828f, -0.08071232f, -0.026709633f, 0.039849177f, 0.060582485f, 0.18563694f, -0.039375868f, -0.054007668f, 0.24227726f, -0.18742722f, -0.24190399f, 0.12418261f, 0.115807004f, 0.1964173f, -0.038979724f, -0.016232053f, 0.08021926f, 0.03527632f, -0.07553139f, -0.14949843f, -0.32104006f, 0.042189628f, -0.18859705f, -0.3146311f, 0.29612675f, 0.05435388f, 0.017570421f, -0.12924203f, 0.15888609f, 0.22567499f, -0.17572449f, -0.1539918f, 0.14747733f, -0.026413858f, -0.15089324f, 0.13933043f, 0.061002363f, -0.0470624f, 0.09498196f, 0.041731454f, -0.11130065f, 0.03699807f, -0.04428503f, 0.43267417f, 0.1190924f, -0.013901513f, 0.10122988f, 0.22951142f, 0.14898615f, 0.0063483147f, 0.17654648f, -0.14453486f, 0.10376799f, -0.3102288f, 0.39921707f, -0.01703004f, -0.045724656f, 0.042239048f, 0.027168987f, -0.004557859f, 0.09682331f, -0.13158108f, 0.35513678f, 0.19017415f, 0.30627474f, -0.027756266f, -0.07578137f, 0.07314864f, 0.19032083f, 0.09950403f, -0.32871217f, -0.11472351f, 0.080204055f, 0.09109803f, 0.24710338f, -0.09779106f, 0.079036474f, -0.12357467f, -0.1693427f, 0.29188728f, 0.18481345f, -0.14119478f, 0.08830231f, 0.06615283f, 0.38543528f, 0.12796542f, -0.059507173f, 0.20207652f, -0.12809227f, -0.0995719f, -0.027070997f, 0.07440905f, -0.15010893f, -0.011394867f, 0.13584752f, -0.2773412f, 0.033520743f, 0.00019349514f, 0.15403283f, -0.26549444f, -0.006752569f, 0.24011119f, -0.38228065f, -0.14607309f, -0.25987452f, 0.1172146f, 0.026904197f, -0.0433101f, -0.019960124f, -0.05174287f, 0.032648984f, -0.19361836f, -0.38288498f, 0.08448544f, -0.26363984f, 0.25553438f, -0.21914867f, -0.024011927f, -0.039376162f, 0.27792743f, -0.061978042f, 0.14640893f, 0.28156033f, -0.15948462f, -0.3878626f, 0.16854078f, -0.14323075f, 0.15213512f, -0.13168845f, 0.15781657f, 0.13179085f, 0.07125119f, -0.1884367f, 0.29410097f, 0.24897845f, 0.009065067f, 0.010002045f, 0.12867995f, -0.09199794f, 0.046709932f, 0.21740317f, 0.057835434f, -0.17556198f, -0.086909f, -0.21476114f, -0.02581579f, -0.16256593f, -0.14992085f, 0.045603417f, -0.1630149f, 0.17474245f, -0.048025798f, 0.31536826f, -0.06448767f, -0.1585523f, -0.12810314f, 0.069628924f, 0.252805f, -0.15910779f, -0.021399764f, -0.2102862f, -0.19597879f, -0.051153153f, -0.19750759f, -0.19083299f, -0.13708209f, -0.17316972f, 0.16699775f, -0.014717344f, 0.044716008f, 0.20111203f, -0.080288455f, 0.11081938f, -0.16102037f, 0.09131833f, 0.050836097f, -0.12997335f, 0.022831686f, -0.09530496f, 0.13569407f, -0.061389796f, 0.046780717f, -0.055232022f, 0.09098367f, -0.12046334f, 0.25820956f, 0.25035927f, -0.11671696f, 0.066987716f, -0.28081688f, 0.2283976f, -0.09259794f, -0.034705244f, -0.17432357f, -0.004247815f, 0.105597906f, 0.14050363f, -0.08472006f, -0.14509276f, -0.15420558f, -0.17871156f, 0.0152280675f, -0.11910418f, -0.26585037f, 0.32314107f, -0.0497241f, 0.021683393f, 0.08344484f, 0.05031232f, 0.17460576f, -0.08104197f, -0.046008557f, 0.028227396f, -0.0077497815f, 0.03183915f, -0.053991288f, 0.2637146f, -0.07298389f, -0.07524377f, -0.05677134f, -0.092286676f, -0.038677704f, -0.22824861f, 0.096182816f, -0.1652499f, -0.08552389f, -0.15714903f, -0.068340614f, -0.091896154f, 0.2441389f, 0.26075232f, 0.16046545f, -0.13278271f, -0.03332701f, -0.17554282f, 0.33858967f, 0.03849717f, 0.25554997f, 0.10000418f, -0.03189778f, 0.016871043f, 0.1062025f, -0.034656297f, 0.22595951f, -0.19181684f, -0.15703131f, 0.34251148f, 0.10817498f, 0.13638446f, -0.051311977f, -0.0054651843f, 0.073790215f, 0.22281355f, -0.17135943f, 0.17880519f, -0.041827142f, 0.23365961f, 0.062220376f, 0.019907532f, 0.33482406f, -0.1695436f, -0.1702566f, -0.06936365f, -0.025194291f, -0.11562973f, 0.08854907f, 0.17610589f, -0.07127063f, -0.028263353f, -0.04656124f, -0.14578219f, 0.13993543f, -0.04546522f, 0.080992684f, 0.19109239f, 0.039463777f, -0.25464374f, -0.20384711f, -0.011818469f, 0.23555996f, -0.06753683f, 0.027872283f, 0.1985501f, -0.20259431f, -0.11983729f, 0.11170262f, 0.18374434f, -0.15733218f, 0.08561054f, -0.12755272f, 0.12528645f, -0.07380304f, -0.24905433f, -0.25144148f, 0.29634595f, -0.05422921f, -0.10883085f, 0.00022483493f, 0.048068203f, -0.09741748f, 0.002239743f, 0.1737437f, -0.094247244f, 0.31896248f, -0.02554563f, -0.121512525f, -0.036179833f, 0.17054631f, -0.20572221f, -0.12446421f, 0.13469477f, -0.04191542f, 0.10165632f, 0.03236986f, -0.06269427f, 0.07165685f, 0.15586585f, -0.15924948f, 0.28426346f, -0.26792783f, -0.17830026f, 0.2855564f, 0.02016251f, -0.012910907f, 0.076156445f, -0.017856391f, -0.14488924f, -0.16876617f, -0.14389016f, 0.06250326f, -0.033625532f, -0.040176727f, 0.001755307f, 0.05315075f, -0.17956926f, -0.2895067f, 0.123420954f, 0.18455853f, -0.083464034f, -0.024337497f, 0.28161305f, 0.21283616f, -0.06141289f, -0.07096059f, 0.03280672f, 0.070204504f, -0.12969151f, -0.083151795f, 0.10602425f, -0.028998729f, 0.10509724f, 0.043708827f, -0.1968863f, 0.19037983f, -0.07726733f, 0.2930185f, 0.16408888f, 0.24398102f, 0.014641355f, 0.1246632f, 0.25917467f, -0.047443874f, -0.24762806f, 0.08450832f, -0.17637968f, -0.09124001f, -0.05781444f, -0.0150156515f, -0.08845241f, 0.24869305f, 0.09764761f, 0.06574909f, 0.22801772f, 0.23147187f, -0.20604399f, 0.1976049f, 0.23643401f, -0.14978532f, -0.025356818f, 0.009213985f, 0.071167104f, 0.16528551f, 0.07883162f, 0.027146358f, 0.08433475f, -0.030364512f, 0.123773485f, -0.14820392f, -0.14070167f, -0.081606485f, 0.29188716f, 3.2459007e-05f, -0.03528303f, 0.0387373f, 0.1472811f, 0.20670262f, 0.21801135f, -0.0684786f, -0.16871066f, -0.032142907f, 0.20186068f, -0.1294743f, 0.22581027f, 0.12573011f, -0.002757484f, 0.12258459f, 0.12396492f, 0.19567665f, -0.13675179f, -0.08949488f, 0.12798962f, -0.17959476f, 0.11605953f, -0.17360196f, -0.06217456f, 0.157359f, -0.119864196f, -0.12479607f, -0.02624156f, -0.046220887f, 0.029129524f, -0.31768447f, -0.019227756f, -0.15119268f, 0.23904708f, 0.07835536f, 0.02994683f, 0.04141331f, 0.034237318f, 0.14468709f, -0.16116886f, 0.27279603f, 0.21463709f, 0.02590256f, -0.12733254f, 0.087491855f, -0.11293463f, -0.017696176f, 0.29583988f, 0.032849036f, 0.21592201f, 0.073975116f, 0.17735359f, -0.12840073f, 0.26641068f, -0.0716121f, -0.11348332f, -0.26109454f, 0.08677576f, 0.22989269f, -0.11001558f, 0.038960688f, 0.030094113f, -0.015818894f, 0.08870584f, 0.25879672f, -0.023206994f, 0.010377135f, 0.118409924f, -0.12826353f, 0.31317446f, 0.1227532f, 0.0390372f, 0.009691957f, 0.017974589f, -0.211303f, -0.096078314f, -0.21752658f, 0.09752178f, -0.14189962f, 0.1890531f, -0.19178793f, 0.18095993f, -0.29130575f, 0.13149865f, -0.1401051f, -0.11681892f, 0.15659024f, -0.11088919f, -0.1993884f, 0.33252805f, 0.17672145f, -0.019563874f, -0.35162657f, -0.07865603f, -0.12603387f, -0.013160162f, -0.019865623f, 0.0744853f, 0.23025714f, 0.001711975f, 0.11678433f, -0.19954021f, 0.2065165f, -0.054474365f, -0.2759767f, -0.20370758f, -0.04769824f, 0.109663226f, 0.25889033f, -0.10771169f, 0.11714885f, -0.05545269f, 0.036069542f, -0.14101224f, -0.02893134f, 0.28140002f, 0.19894184f, 0.2475398f, 0.23019023f, 0.100045756f, -0.16353266f, -0.14162095f, -0.09360264f, 0.379169f, 0.02541247f, 0.06026524f, 0.14896746f, 0.010559033f, -0.1060504f, -0.21860234f, 0.08289753f, -0.10326084f, 0.1243802f, 0.14402977f, -0.21858901f, 0.1298747f, -0.14432493f, -0.047342394f, 0.019950954f, -0.0946203f, -0.1476248f, 0.025574239f, -0.012314905f, -0.017549746f, -0.04023643f, 0.074187554f, 0.08696921f, 0.30815518f, -0.026474204f, -0.10903758f, -0.3142754f, -0.080217f, -0.14723055f, -0.09578894f, -0.24261399f, 0.09433926f, 0.101293355f, 0.021851083f, -0.16922699f, 0.22385378f, -0.13373403f, 0.13149303f, -0.1308131f, 0.11127893f, 0.016371988f, -0.06622745f, 0.1938653f, -0.090070195f, 0.017416764f, -0.19262464f, 0.053201754f, 0.19661973f, 0.099708624f, 0.121529214f, 0.320051f, -0.20579858f, 0.15705498f, 0.1770352f, 0.13576414f, 0.1876949f, -0.2333228f, 0.092030644f, 0.09530345f, 0.3068584f, -0.017272858f, -0.18744043f, 0.05809578f, 0.06542331f, 0.20005055f, 0.2123751f, -0.13003093f, -0.19474672f, 0.012858035f, -0.14055309f, 0.013371861f, 0.15988582f, 0.2360486f, 0.23186208f, 0.12646484f, -0.064731665f, -0.046517454f, -0.24391213f, -0.057427935f, 0.21585125f, 0.20892717f, -0.12128182f, -0.14287873f, 0.26953855f, -0.038018968f, 0.12536646f, -0.10659425f, -0.14303252f, 0.2021513f, 0.0077709053f, 0.22001535f, 0.23235966f, 0.21855615f, 0.13180518f, 0.30186167f, -0.029599704f, 0.034394786f, -0.25965133f, 0.024224991f, 0.14867552f, -0.29061207f, 0.08432751f, 0.33922207f, -0.053627208f, -0.19221966f, -0.042738438f, 0.07218155f, -0.170544f, -0.18675648f, -0.15384759f, 0.023095764f, 0.1938605f, 0.30793178f, -0.18939222f, 0.17297056f, -0.2442617f, 0.32305962f, 0.13797882f, -0.121560045f, 0.21037944f, 0.13277577f, 0.057909284f, 0.2273923f, -0.18306385f, -0.10512407f, -0.1512527f, 0.09401779f, 0.23654911f, 0.3494943f, 0.09123728f, -0.03213406f, -0.15342884f, 0.08251008f, -0.17761101f, 0.13430934f, 0.12548456f, -0.016053244f, 0.1467941f, 0.096934065f, -0.1346872f, -0.26196373f, 0.010764527f, 0.0146461725f, -0.27397743f, 0.107447326f, -0.077584706f, 0.17398179f, 0.11095972f, 0.1485831f, 0.36410874f, 0.3282764f, 0.20401016f, -0.013050018f, 0.18110935f, 0.08794818f, 0.1695243f, 0.29352233f, 0.00045173417f, -0.37759456f, 0.07631297f, 0.38127324f, 0.08184124f, 0.0927924f, 0.16776378f, -0.034066312f, 0.10455993f, 0.12800223f, -0.058281362f, 0.13838819f, -0.13337284f, 0.17057322f, -0.20732227f, 0.31860703f, -0.19010715f, 0.123101436f, 0.11680419f, -0.013122075f, -0.26199287f, 0.07765075f, 0.09846195f, -0.02922592f, 0.2731731f, 0.3004541f, 0.07429647f, 0.07301129f, -0.21884632f, -0.18576579f, 0.14061622f, -0.08470331f, 0.35214168f, 0.22030276f, -0.12578788f, -0.123390086f, -0.18597418f, 0.085417055f, 0.29588675f, 0.21899219f, 0.17757301f, -0.11183457f, -0.13321874f, 0.20149574f, 0.007850236f, -0.2161865f, -0.29576606f, 0.2351288f, -0.06768722f, 0.0680766f, 0.031061528f, 0.038038384f, 0.25094014f, -0.0758298f, -0.16033618f, -0.21741678f, 0.1342516f, -0.16715543f, 0.19214238f, 0.097190514f, 0.30954155f, 0.047057655f, -0.16473252f, 0.07590692f, 0.19466549f, -0.3794481f, 0.117256895f, 0.016696867f, 0.11958243f, 0.08207521f, -0.32004368f, 0.33082062f, -0.16923776f, -0.18584222f, 0.07615735f, 0.027181456f, -0.25103945f, 0.15705527f, -0.110512935f, 0.22091348f, -0.03663417f, 0.22038922f, -0.065929696f, -0.027831135f, -0.25893685f, -0.11652843f, -0.18191329f, 0.013344814f, 0.30818492f, -0.12970735f, -0.053839784f, 0.13174228f, -0.2589005f, 0.21047275f, 0.020729246f, 0.2663342f, 0.17339279f, -0.10255961f, 0.09918363f, 0.01828271f, 0.061903033f, 0.37225482f, 0.30710983f, 0.20680073f, 0.058943886f, -0.12948817f, 0.03947875f, 0.046918407f, 0.16184042f, -0.048796855f, 0.022167496f, 0.044086136f, -0.26627204f, 0.12321521f, -0.26410475f, -0.003909343f, -0.21277454f, 0.01697534f, -0.10582711f, 0.03617728f, -0.007053567f, 0.17751504f, -0.064811826f, -0.057910666f, -0.035508063f, 0.052163895f, 0.13971567f, 0.06444898f, 0.02324125f, -0.30072513f, 0.11722939f, 0.21284834f, 0.2229604f, -0.28976184f, -0.048192192f, 0.022945903f, -0.15653732f, 0.111296065f, -0.29097155f, -0.044821557f, 0.05469475f, 0.028687071f, -0.107622765f, 0.27774915f, 0.039554846f, 0.29657596f, -0.041159786f, -0.17332792f, 0.10015511f, 0.23384525f, -0.001523219f, -0.10438384f, 0.424499f, 0.25715083f, -0.23890091f, 0.17672981f, 0.19891317f, -0.25465676f, 0.311485f, 0.040210508f, 0.32609403f, 0.08032094f, 0.19912952f, 0.057333846f, 0.30853525f, 0.07877704f, -0.06383063f, 0.06002257f, 0.22302473f, 0.11799199f, 0.18482047f, 0.19865781f, 0.15070598f, 0.011481321f, 0.0031307158f, -0.02777697f, 0.17500536f, 0.16014434f, 0.25859258f, 0.10050001f, -0.090759546f, 0.0681673f, 0.04905525f, -0.028459413f, -0.030087974f, -0.09613837f, 0.0019952473f, 0.11045259f, 0.018690202f, 0.07201916f, 0.0011778867f, -0.13386276f, 0.03203297f, -0.08328042f, -0.11821101f, 0.020973478f, -0.16184749f, 0.04104484f, 0.031081727f, 0.13235275f, 0.082914084f, 0.055460446f, 0.13088319f, 0.23564905f, 0.12933226f, -0.19131133f, -0.22730906f, -0.020288065f, -0.25617868f, -0.26251796f, -0.3252721f, 0.39408398f, -0.035444923f, 0.0068019046f, -0.15145496f, 0.2810062f, -0.24255508f, -0.091806926f, 0.21918783f, -0.17477041f, 0.18307778f, -0.025804438f, -0.22254491f, 0.0535765f, -0.11868452f, 0.21433632f, 0.055202648f, 0.082740605f, -0.12527831f, -0.00651283f, -0.2069489f, 0.05624354f, 0.1584587f, 0.12352731f, 0.17529722f, -0.21561317f, -0.1526127f, 0.151843f, 0.35630456f, -0.030452833f, 0.019275833f, -0.008446557f, 0.17907211f, 0.0135515f, -0.09469647f, 0.10049635f, 0.2049093f, 0.074958466f, -0.01512293f, 0.07471826f, 0.0027245784f, -0.109944835f, -0.05792953f, -0.27047628f, 0.19218059f, 0.24214391f, 0.08038472f, -0.00785067f, -0.07173195f, -0.0450164f, 0.037987754f, 0.023250489f, 0.23407121f, 0.04355529f, 0.1400534f, -0.031116113f, 0.10095954f, 0.10304338f, 0.061066054f, 0.07887253f, -0.13376649f, -0.0071973703f, 0.23714197f, 0.10979517f, -0.01034415f, -0.12955457f, -0.164429f, -0.18463942f, -0.13167314f, -0.12567581f, 0.14651209f, 0.18864292f, 0.18559402f, -0.22960642f, 0.23943663f, -0.18988353f, 0.23578207f, 0.04281627f, 0.028558508f, 0.0002703189f, 0.17476718f, -0.14745861f, 0.098991305f, 0.18437575f, -0.0685619f, 0.13043712f, -0.021447957f, 0.023758238f, -0.11826414f, -0.015012569f, 0.325743f, 0.09674425f, 0.14581938f, 0.020971727f, -0.09700088f, -0.19985545f, 0.39954102f, -0.14469916f, -0.31190622f, -0.11820207f, 0.15250815f, 0.054957096f, 0.21289079f, -0.1839288f, -0.20224486f, -0.11035888f, 0.36131445f, 0.113335826f, -0.22570427f, 0.11186787f, -0.063831255f, 0.04773006f, -0.16194119f, -0.27236396f, -0.37088886f, -0.08662601f, -0.04766814f, 0.29271397f, -0.048786268f, -0.07001723f, 0.4400433f, 0.2629731f, 0.049862187f, 0.27988023f, 0.054923043f, 0.12898439f, -0.060833216f, -0.2461782f, -0.3149305f, 0.25140244f, -0.20993936f, -0.011880181f, 0.11223358f, 0.06296446f, 0.04866951f, 0.07433229f, 0.2621768f, -0.15619864f, 0.11541709f, -0.33561262f, 0.041653164f, 0.30647403f, -0.108597666f, 0.0066153994f, 0.16820706f, 0.27207842f, 0.10868212f, 0.035813943f, -0.074472964f, -0.038032316f, 0.18253897f, 0.0084927f, 0.2089021f, -0.023346554f, -0.16406262f, 0.23771161f, 0.230896f, -0.113781154f, -0.27081707f, -0.08712193f, 0.029430648f, 0.026673032f, 0.056315735f, -0.017235566f, 0.032525577f, 0.29014066f, 0.045427904f, 0.061000116f, -0.16100344f, -0.24879913f, 0.21803239f, 0.007989986f, 0.16467538f, 0.19271936f, -0.04711455f, -0.14329489f, 0.20382261f, 0.12949511f, 0.20328838f, -0.05555673f, 0.09480454f, 0.2970864f, 0.16909932f, -0.19326094f, 0.026286209f, 0.24954264f, -0.24652076f, -0.12789282f, 0.0869751f, 0.3080914f, 0.23974831f, 0.15153083f, -0.13126433f, 0.009952833f, 0.11589964f, 0.09587178f, 0.29350406f, -0.029212132f, 0.3081854f, -0.15317935f, 0.20604368f, -0.07787905f, 0.13902135f, -0.101231895f, -0.041755762f, 0.10741424f, -0.08584976f, -0.11011737f, -0.22501086f, 0.11480868f, -0.01879597f, -0.059945237f, -0.24673213f, 0.052340876f, -0.18367244f, -0.25428873f, 0.1575275f, -0.026475199f, -0.1581713f, -0.28635532f, -0.013556802f, 0.17030133f, -0.06221322f, 0.009404651f, 0.3957402f, 0.18817747f, 0.2864472f, 0.20196047f, 0.19046162f, 0.26589423f, -0.14055829f, 0.19308254f, 0.084010385f, 0.3481637f, 0.0225776f, -0.028289452f, -0.02037554f, -0.23386885f, -0.09906667f, 0.15991187f, -0.15514663f, 0.08210549f, 0.03218683f, -0.14292975f, -0.09550106f, 0.19279097f, -0.12558483f, 0.10602596f, 0.17575456f, -0.26382083f, -0.0692201f, -0.033309527f, -0.19332792f, -0.05621448f, -0.42445257f, 0.025156643f, 0.00042453036f, 0.07074109f, -0.23164889f, 0.13937804f, 0.017759208f, 0.20872709f, 0.09687249f, -0.078356f, 0.35246193f, 0.18066601f, -0.006899991f, -0.1217349f, -0.01376973f, 0.27245915f, 0.20233425f, -0.052331686f, 0.09614357f, -0.17186408f, 0.13655102f, 0.31936967f, 0.2622556f, 0.07666319f, 0.13258702f, 0.15660006f, 0.055589564f, -0.17470905f, 0.14529765f, -0.0119101275f, -0.05731397f, 0.3099047f, 0.2581257f, -0.0007448276f, -0.023901334f, -0.18301626f, -0.05179438f, 0.013651704f, -0.018656181f, -0.15286788f, -0.115949154f, -0.15183227f, -0.034052834f, -0.22664617f, 0.25928372f, 0.30669382f, -0.13061981f, 0.20152831f, -0.058162782f, 0.13680506f, -0.0792683f, -0.022145545f, -0.12516871f, -0.08145025f, 0.049508095f, 0.2286441f, -0.083060406f, -0.0994262f, 0.12353622f, 0.026167266f, -0.03492812f, 0.21518843f, -0.17985219f, 0.26391092f, -0.17323115f, -0.12605123f, 0.04504713f, 0.17686011f, -0.16050631f, -0.020867482f, 0.08900192f, -0.043091744f, 0.08260345f, 0.09951739f, 0.08587491f, 0.18494755f, 0.32246107f, -0.119144045f, -0.10014245f, 0.2237462f, 0.22622387f, -0.096243955f, -0.20335072f, -0.03826138f, -0.09797439f, 0.11864425f, 0.17630456f, 0.11840063f, -0.016663406f, -0.11009342f, 0.12478856f, 0.1510592f, -0.26249504f, 0.014090904f, 0.019436628f, -0.24903621f, -0.21176982f, 0.1270538f, 0.20016955f, -0.16750099f, -0.15130116f, -0.22316432f, 0.18413936f, 0.04523523f, -0.16058622f, 0.017584741f, -0.3620655f, -0.044015694f, -0.27359825f, 0.05641006f, 0.3989477f, -0.26605216f, -0.15841089f, 0.18434992f, -0.08888153f, -0.27603486f, -0.022109853f, 0.059683044f, -0.064122f, -0.19108054f, 0.11965823f, 0.46653542f, 0.1397376f, 0.13159576f, 0.14280045f, -0.13295606f, -0.16238299f, 0.30895904f, -0.23535351f, 0.015400621f, -0.08059863f, 0.08338487f, -0.090962894f, 0.0030797631f, -0.18188843f, 0.22594081f, -0.11862465f, -0.171086f, 0.21836652f, 0.07328877f, -0.059462924f, 0.20238133f, -0.01829418f, -0.091189645f, 0.1798548f, 0.01639144f, -0.047862016f, 0.25630647f, 0.31228295f, -0.00526304f, 0.09773236f, -0.1985863f, -0.119795136f, 0.09175879f, -0.29016796f, -0.18149142f, 0.2739342f, 0.13549958f, 0.026857913f, 0.31823725f, 0.27101198f, -0.002900809f, 0.11907208f, -0.015767902f, -0.010140789f, 0.2506312f, -0.16898848f, -0.19497493f, 0.22110261f, 0.08077665f, -0.015578025f, 0.10696368f, 0.15652211f, 0.011565138f, 0.07065894f, -0.042316124f, 0.2032688f, 0.17549962f, -0.2093544f, 0.009154929f, -0.06733657f, 0.18399203f, 0.1905622f, 0.04815063f, 0.016049176f, -0.15077825f, -0.053467706f, 0.13430764f, 0.12823318f, 0.4060085f, -0.07600307f, -0.3647383f, 0.12224913f, -0.0037522225f, -0.055255264f, 0.12656033f, 0.16708608f, -0.40410578f, 0.11104261f, 0.0044104345f, -0.28746378f, 0.0007500266f, -0.11906007f, -0.18643351f, -0.07533987f, 0.1048201f, 0.2223434f, 0.03158993f, -0.014476196f, -0.37717307f, 0.041192316f, 0.0794951f, -0.41750562f, 0.07062215f, 0.17749201f, -0.19266456f, 0.0008626853f, 0.02395727f, 0.104753345f, 0.07574878f, 0.15821916f, -0.009908165f, -0.21946858f, 0.12795727f, -0.010166347f, -0.21049027f, 0.099593274f, -0.021464746f, 0.14930765f, 0.2801874f, 0.18212566f, 0.28047767f, -0.048487578f, -0.12361934f, -0.24519664f, 0.2988029f, -0.15619256f, -0.104504906f, -0.21038173f, -0.09064449f, 0.12308415f, 0.13788828f, -0.18191746f, -0.1318854f, 0.10634858f, 0.043060865f, -0.12446871f, 0.045736693f, 0.21355863f, 0.115820214f, 0.28198344f, -0.21732517f, -0.050476532f, -0.13973019f, -0.17665952f, -0.22261699f, -0.36355498f, 0.01816356f, -0.15409447f, 0.04124393f, 0.10552979f, 0.14161442f, -0.12644807f, -0.10653552f, -0.11910558f, -0.07643947f, 0.25487393f, -0.13425398f, -0.20172958f, 0.0036177041f, 0.11133299f, 0.13417366f, 0.031467043f, 0.12853026f, 0.2013352f, 0.24163832f, 0.056310993f, -0.031935718f, -0.11808973f, -0.33275995f, -0.17782456f, -0.1316685f, 0.1480953f, -0.09586536f, 0.04869286f, -0.041324843f, -0.032406703f, -0.110614434f, -0.021878833f, -0.08476503f, -0.18100807f, 0.15083756f, -0.06785284f, -0.21452911f, -0.014944765f, -0.15863357f, 0.26651973f, -0.0120117515f, 0.1404499f, 0.07851305f, 0.3273342f, 0.032402117f, -0.069765806f, 0.23802884f, -0.23358214f, -0.035871543f, -0.16785222f, 0.1882197f, 0.08428842f, 0.07048292f, -0.03593187f, 0.18994538f, 0.0073296838f, -0.12898572f, 0.22306773f, 0.16706358f, -0.2094039f, 0.20650698f, -0.19583167f, 0.100743085f, -0.07434553f, -0.11634562f, -0.14892259f, -0.16649166f, 0.10785577f, -0.17990543f, 0.2878297f, 0.11855727f, 0.1993448f, 0.049945984f, -0.17265263f, 0.02703728f, -0.21127686f, 0.080793306f, 0.006327183f, -0.032087933f, -0.07214978f, -0.13001521f, -0.18403554f, 0.011849063f, 0.06327787f, -0.016902117f, 0.0719309f, 0.17738108f, -0.21417925f, 0.047802985f, 0.33988607f, -0.0679167f, -0.011246661f, 0.17921986f, -0.0031436593f, 0.28344658f, -0.03443532f, -0.14951381f, -0.10606533f, -0.17739648f, 0.100198396f, -0.3338806f, 0.2564163f, -0.1506657f, -0.13609682f, -0.27463734f, -0.28282517f, -0.06647882f, 0.19897069f, 0.24916951f, -0.31977582f, -0.18925264f, -0.07766253f, 0.20555341f, -0.061622217f, 0.09291273f, -0.038923193f, -0.34888002f, -0.055261355f, 0.011935286f, -0.19144936f, 0.085612476f, 0.17143609f, 0.06530395f, 0.17780572f, 0.049259618f, 0.043760445f, -0.121691264f, 0.03425544f, 0.05918685f, -0.25551176f, -0.05923329f, -0.07262796f, -0.1529414f, -0.05480761f, 0.16669145f, 0.09506357f, 0.15332085f, 0.16416736f, -0.05213773f, 0.038432747f, -0.23062712f, 0.21842222f, 0.07788969f, -0.11530258f, 0.016242234f, 0.2285163f, 0.3325089f, 0.21455911f, 0.17448452f, 0.11171306f, 0.007729412f, -0.019262547f, 0.13995335f, -0.105386674f, 0.1277087f, 0.09949669f, 0.02790485f, 0.1535971f, 0.1487457f, 0.1866068f, -0.14708658f, -0.11390684f, -0.16740505f, -0.051309038f, -0.060822126f, 0.005509389f, -0.07852423f, 0.035795078f, 0.16694476f, 0.25368294f, -0.052868944f, 0.10122212f, 0.0057468107f, -0.16450837f, -0.10819573f, 0.28263247f, 0.26466033f, 0.04410562f, -0.0052021807f, 0.16787201f, 0.26034454f, -0.17060016f, -0.18841082f, -0.101051554f, -0.17208204f, -0.08823951f, 0.39329034f, -0.16891296f, 0.3491283f, 0.1909616f, 0.10440127f, -0.17518808f, -0.24957915f, 0.13191546f, -0.022112714f, -0.19382374f, -0.20274091f, 0.3897061f, -0.1642721f, 0.20563954f, 0.04235149f, 0.12426495f, -0.22817361f, 0.20825568f, -0.18687001f, 0.05665726f, 0.25849596f, 0.054012224f, -0.24799295f, 0.09020845f, 0.07920854f, -0.23426308f, -0.21363053f, -0.04278671f, -0.11195496f, -0.1620881f, -0.0025782725f, 0.010103347f, 0.17003864f, 0.12599364f, 0.08198811f, -0.22400737f, 0.31879383f, -0.14441608f, 0.14152403f, 0.20859414f, 0.038833417f, 0.1585423f, -0.27209684f, 0.03844135f, 0.20899193f, 0.0012095202f, -0.056803863f, -0.1916105f, -0.13568963f, -0.010231188f, -0.0038645691f, 0.2061015f, -0.20805265f, 0.10265868f, 0.19891515f, 0.117371194f, -0.06407237f, -0.013963854f, 0.1134133f, -0.29095897f, 0.12929149f, -0.11515117f, -0.02944701f, 0.12157333f, 0.23098291f, 0.03167919f, -0.24803957f, 0.064353004f, 0.1004025f, -0.09128108f, 0.09694076f, -0.2261481f, 0.33274782f, 0.18003361f, 0.035226285f, 0.05873277f, 0.33400106f, 0.17160921f, 0.11720701f, 0.25701106f, 0.050263274f, -0.22034426f, 0.09501261f, 0.18695419f, -0.07348253f, -0.09598554f, -0.006202128f, 0.111887276f, 0.047651924f, 0.19561563f, 0.14045776f, 0.024013773f, 0.09016819f, -0.009739854f, -0.24212703f, -0.112945475f, -0.19656256f, 0.21392055f, -0.1992061f, 0.023314437f, 0.10824455f, -0.11047025f, -0.12906669f, 0.17084749f, -0.09504257f, 0.107876144f, 0.13499726f, -0.097094506f, 0.17342904f, 0.23450035f, -0.15907143f, 0.3082977f, 0.25800398f, -0.27760336f, -0.2574241f, -0.047628134f, 0.22548714f, 0.2923637f, 0.046685357f, -0.05429665f, 0.2135084f, 0.23665589f, 0.10707072f, 0.093041316f, -0.13496222f, 0.2538397f, -0.18097398f, -0.26079446f, 0.11820381f, 0.03478714f, -0.04317452f, 0.23790996f, -0.029639263f, 0.08525519f, -0.106511995f, 0.2758053f, -0.07716716f, 0.07844176f, 0.14402896f, 0.1650814f, -0.1524617f, -0.16354321f, -0.013893687f, -0.10185041f, 0.014988283f, -0.03235349f, 0.21852894f, 0.03242755f, 0.12495477f, -0.10332395f, 0.23865807f, 0.30530164f, 0.257381f, 0.21909408f, -0.19853418f, 0.16086368f, 0.20921265f, 0.005330801f, -0.22470261f, 0.07204477f, 0.04844284f, 0.33162418f, -0.39843032f, 0.13391437f, -0.09386977f, 0.17437199f, -0.16626886f, -0.18625733f, -0.124035664f, 0.3897134f, 0.11777913f, 0.007872365f, 0.26025003f, -0.2057155f, 0.24697052f, 0.14288238f, 0.42824155f, -0.1104009f, -0.2569508f, 0.27768537f, 0.13042687f, 0.25439218f, -0.13157812f, -0.0793565f, 0.2443527f, 0.33344048f, -0.15989481f, -0.01924842f, -0.28266278f, -0.0008866963f, 0.13348432f, -0.27193627f, -0.18094096f, -0.15141244f, -0.11911124f, 0.16261283f, 0.016421692f, 0.017073154f, 0.22712336f, 0.3780079f, -0.09629328f, 0.16468799f, 0.16256842f, -0.41910422f, 0.19763649f, 0.11447585f, 0.004912387f, -0.0018862868f, -0.15141532f, -0.078274064f, 0.007733976f, 0.040647116f, -0.39979964f, -0.02161282f, 0.25178063f, 0.37633517f, 0.1380158f, -0.21357198f, 0.27930734f, 0.30007085f, 0.056202393f, 0.05808719f, -0.09195204f, -0.26389945f, -0.20031688f, -0.059429448f, 0.098658815f, 0.16082433f, -0.07121603f, -0.10305643f, -0.079464376f, 0.15915789f, -0.2368072f, 0.1481401f, 0.10395056f, 0.023071785f, 0.20096825f, -0.009548117f, -0.033309888f, 0.27707815f, 0.13477115f, -0.20313029f, -0.2825616f, 0.10207723f, 0.11233505f, 0.2742465f, 0.03617083f, -0.06724971f, 0.19022495f, 0.25880507f, 0.18151002f, -0.051896535f, -0.25325477f, 0.117934294f, 0.05011996f, -0.014750627f, 0.067711584f, 0.11106875f, 0.06466737f, 0.17573182f, 0.18821895f, 0.10168976f, 0.24112722f, 0.19694458f, -0.10618076f, 0.12556453f, 0.07089449f, -0.116086364f, 0.054449882f, -0.1845615f, 0.2588708f, -0.11965976f, -0.22433195f, 0.1886208f, 0.19662836f, -0.099016376f, -0.3266093f, 0.17992908f, 0.01520229f, 0.10029162f, -0.0113295475f, 0.13107218f, -0.09931403f, 0.2258276f, 0.031510122f, -0.032178465f, 0.03722972f, 0.05486135f, -0.08344803f, -0.029112278f, 0.18125115f, -0.1265201f, 0.12227531f, -0.22996792f, 0.090534665f, 0.36813995f, -0.21238016f, 0.076271646f, 0.16247505f, 0.31600162f, 0.1543087f, -0.015691254f, 0.05105394f, 0.014298083f, 0.11359919f, -0.19266674f, 0.05926509f, 0.31789595f, -0.15976599f, -0.190939f, 0.01127056f, -0.2146433f, -0.014766516f, -0.056566097f, 0.022743627f, -0.2557797f, 0.05327797f, -0.0077354354f, 0.20823182f, 0.2624999f, -0.2506036f, -0.10068072f, -0.006772128f, 0.08248592f, -0.23469725f, -0.30151668f, -0.16640075f, -0.105100885f, 0.37107858f, -0.022527667f, 0.19919346f, -0.17750345f, 0.2262677f, -0.14301f, 0.09949163f, 0.023731971f, -0.09678014f, 0.10308143f, -0.07469521f, -0.09807126f, 0.29088318f, -0.0993578f, 0.115554415f, 0.09946891f, 0.10722091f, 0.27455753f, -0.01203624f, 0.05368303f, -0.025078122f, 0.070442244f, 0.09747687f, -0.024172973f, -0.14699377f, 0.20576507f, 0.038027156f, -0.10288093f, 0.2585022f, 0.27637568f, -0.11099982f, 0.11626914f, 0.014052295f, -0.23845506f, 0.24304762f, -0.15884815f, 0.056335118f, 0.21558471f, -0.03571634f, 0.16712992f, 0.045391385f, 0.14148611f, 0.049020696f, -0.049235217f, 0.29535025f, 0.15007234f, 0.32198247f, 0.116088726f, 0.11486103f, 0.11203532f, 0.25003594f, -0.06043373f, -0.13982952f, 0.200822f, 0.13160168f, 0.118185975f, 0.142912f, -0.05370707f, 0.3163371f, -0.0335944f, -0.09050253f, 0.18234265f, 0.17052834f, 0.046518505f, -0.1399634f, 0.056245994f, 0.020176223f, 0.038368072f, 0.11853219f, 0.13238168f, -0.16844061f, -0.16680571f, 0.049280524f, 0.019563349f, 0.1774081f, 0.009418103f, -0.20168188f, -0.096314505f, -0.25440764f, 0.12337914f, 0.035254873f, -0.16901919f, 0.053942937f, -0.06686773f, 0.17773767f, -0.02474126f, 0.18006155f, 0.17200321f, -0.2864747f, 0.14265327f, 0.059744474f, 0.17965885f, 0.16632116f, -0.048558194f, -0.0037135035f, -0.10409835f, -0.24303071f, -0.39876953f, 0.21338601f, 0.3091436f, -0.22620758f, 0.08518076f, -0.13568792f, -0.1160466f, -0.22525817f, 0.040370777f, 0.1875452f, -0.16573845f, 0.19302227f, 0.34027198f, 0.1718108f, 0.0022520232f, 0.14961182f, -0.10181229f, -0.31680766f, 0.3272435f, 0.17965448f, 0.14433792f, 0.27058166f, -0.133056f, 0.0016511261f, -0.1199742f, 0.36603343f, -0.047123227f, -0.10893637f, -0.16448218f, 0.13100322f, -0.11843754f, -0.046254955f, -0.24723257f, -0.056528173f, 0.27964866f, -0.20087823f, 0.053891197f, 0.1260836f, 0.1578285f, -0.13874786f, 0.10497679f, -0.0035241414f, 0.23724851f, 0.044617023f, 0.0393842f, -0.15734766f, -0.07760073f, -0.079976626f, -0.01439053f, -0.10655378f, -0.33975148f, -0.058102038f, -0.16432242f, -0.15090403f, -0.021831319f, -0.08974912f, 0.21843357f, 0.14896911f, 0.2820619f, 0.1467126f, 0.14660102f, 0.05340153f, -0.37406442f, -0.027694922f, -0.21046877f, -0.041897435f, -0.023012152f, -0.10993539f, 0.41582796f, -0.0051435977f, 0.42956454f, -0.19139373f, -0.18160056f, -0.16844484f, -0.46245632f, 0.045792356f, 0.114822194f, 0.33767715f, 0.015127573f, 0.08443899f, -0.044994634f, 0.024575165f, 0.36509794f, -0.06556596f, 0.27982783f, -0.14710136f, -0.29085705f, -0.15577307f, -0.029143326f, 0.1645424f, 0.11250435f, -0.09225148f, 0.032842856f, 0.10821227f, 0.31211126f, -0.3571731f, -0.21031918f, -0.102929205f, 0.23881206f, -0.05856327f, -0.058355343f, 0.22108889f, -0.24914366f, -0.2091615f, -0.07913655f, 0.11914745f, 0.26576743f, -0.19238418f, 0.24612649f, -0.1822923f, 0.026788913f, 0.14581227f, -0.00988159f, -0.15831098f, -0.052374143f, 0.2595008f, -0.38141692f, -0.21988547f, -0.12808982f, 0.079867356f, 0.009480839f, 0.09035504f, 0.20904851f, 0.37568414f, -0.17903745f, -0.07649029f, 0.22741039f, 0.20109777f, 0.07605216f, -0.15760556f, 0.20282252f, 0.18699874f, -0.035560153f, -0.2813275f, -0.2178927f, 0.07127759f, -0.13115165f, -0.13323855f, 0.044483155f, -0.15477023f, 0.24756196f, 0.078268275f, 0.18719243f, -0.13220733f, -0.21645328f, 0.14231558f, 0.1637512f, -0.31135306f, 0.10437384f, 0.1380992f, -0.15487458f, -0.10943617f, -0.22046393f, -0.22760823f, 0.0047795614f, -0.20991285f, -0.40695468f, -0.084871344f, 0.07247415f, 0.050246444f, 0.040113356f, 0.10358894f, -0.22462602f, 0.16715063f, -0.03221411f, 0.014402312f, 0.21467794f, -0.24084227f, -0.35391632f, 0.20199229f, 0.17668836f, -0.03771196f, -0.22908488f, 0.18687509f, 0.3615537f, 0.12853634f, 0.11869094f, 0.22068565f, -0.049312618f, -0.05667571f};

float  dense1_bias[64] = {-0.000131542f, -0.03044969f, 0.059550595f, -0.025783798f, 0.00037092477f, -0.00555891f, -0.004415864f, 0.010673449f, -0.009328446f, -0.014893221f, 0.067856885f, -0.045805536f, -0.016649364f, 0.07326944f, 0.09076195f, 0.10258636f, -0.056694686f, -0.01406675f, -0.0021064798f, 0.05484807f, -0.05075166f, -0.010587756f, 0.034410033f, 0.011976799f, 0.00588141f, 0.07835556f, -0.025445722f, -0.03294389f, 0.013331785f, 0.03799912f, 0.03508953f, -0.056368716f, 0.10850553f, 0.07684169f, 0.021318557f, -0.0011377478f, -0.0330816f, -0.015835391f, -0.014018593f, 0.0272362f, 0.016566623f, -0.050746176f, 0.015304916f, 0.058107782f, -0.033553652f, 0.05545768f, -0.0040846565f, 0.008344947f, -0.02544047f, -0.0149227055f, 0.076381795f, -0.02306215f, 0.026299581f, 0.03175151f, -0.011079733f, 0.04004813f, 0.012710043f, 0.02163691f, 0.08839808f, 0.055369038f, 0.03994102f, -0.041340243f, 0.034125645f, -0.05392281f};

float  dense2_weight[384] = {-0.08310328f, -0.37469548f, 0.3843317f, -0.35327864f, -0.09084476f, 0.112774536f, -0.124891214f, 0.2206484f, -0.29500687f, -0.08858602f, 0.014249684f, -0.2687052f, 0.112560704f, 0.2692312f, -0.38398322f, -0.24794443f, -0.21114275f, -0.22667275f, -0.25683972f, 0.09494382f, 0.32536986f, 0.16786852f, -0.7109695f, -0.42514414f, 0.14619118f, -0.13253938f, -0.255332f, 0.052698884f, -0.07413287f, -0.075794205f, 0.22827184f, -0.23847811f, -0.0018618561f, -0.35959652f, -0.46897975f, 0.049290545f, 0.29552364f, -0.2878971f, -0.38139078f, -0.016701423f, 0.046075035f, 0.20380844f, 0.31924504f, -0.20983858f, -0.1602847f, -0.15896766f, 0.08446428f, -0.35518032f, -0.10567851f, -0.43864504f, 0.27575752f, -0.13360514f, 0.2472585f, 0.2376452f, -0.14701371f, -0.28544185f, -0.17711845f, -0.2937002f, 0.057774305f, 0.026916612f, 0.038132273f, 0.32244372f, 0.08102998f, -0.17510323f, 0.32163373f, -0.4501245f, -0.34136865f, 0.13671713f, -0.15193647f, 0.021030208f, 0.20031236f, 0.15189013f, -0.3016669f, 0.008568583f, 0.11680962f, 0.24571593f, 0.18876095f, -0.49286973f, -0.09382993f, 0.09443055f, -0.27204868f, 0.044447437f, 0.37592706f, 0.27991682f, 0.0031167099f, 0.36142033f, -0.6650991f, -0.27550375f, 0.028877106f, 0.18223473f, -0.40119734f, 0.34778634f, -0.42166108f, -0.089987144f, 0.2580313f, -0.07811089f, -0.055003192f, -0.41052505f, 0.02737953f, 0.0033873396f, -0.3978307f, 0.0062223254f, -0.21543387f, -0.302489f, 0.18564005f, 0.17419593f, 0.10191558f, 0.18748054f, -0.12869838f, -0.39417276f, -0.07270619f, 0.21592003f, -0.16186251f, 0.33312002f, -0.41534758f, -0.035717733f, -0.14237288f, 0.053501222f, 0.19513051f, -0.5875461f, 0.11308917f, -0.17741275f, 0.26581347f, -0.077154666f, -0.43808666f, -0.14345224f, 0.26621768f, 0.011009825f, 0.42951882f, -0.14585689f, -0.11870841f, -0.124765165f, -0.629014f, 0.3759451f, 0.2633837f, 0.13056034f, 0.08436291f, -0.32483217f, -0.05804527f, -0.34082994f, 0.14279616f, 0.22333886f, -0.37700188f, 0.27574554f, 0.18774495f, -0.24502783f, -0.2262037f, 0.19393896f, 0.26410404f, 0.1811349f, 0.091808796f, -0.23020065f, -0.77429754f, -0.4269875f, 0.3662194f, 0.013205903f, 0.058076233f, -0.104462706f, -0.051070414f, -0.14457367f, 0.10160753f, 0.23763898f, -0.2920688f, -0.34789157f, 0.15802723f, 0.3373977f, -0.4044432f, 0.273897f, -0.30403778f, -0.1474268f, 0.08346753f, 0.10039404f, -0.085719764f, 0.1573374f, -0.34688362f, -0.4163569f, 0.28937835f, -0.32836282f, 0.39048088f, -0.37653142f, 0.005783202f, -0.112243496f, -0.5642641f, -0.06106612f, -0.10134564f, 0.4036568f, -0.09616644f, -0.122459106f, 0.08617315f, -0.4041973f, -0.48817644f, -0.14721245f, -0.3549346f, 0.0029124322f, -0.6371774f, -0.27103373f, 0.024881555f, 0.22976251f, 0.15594453f, 0.36493877f, -0.3364946f, 0.14486092f, 0.1903767f, -0.25232553f, 0.29688314f, 0.3123162f, 0.21556452f, -0.34819078f, 0.08745762f, -0.41181397f, 0.20831901f, -0.4427695f, 0.1953666f, -0.21496814f, -0.41125536f, 0.044862483f, -0.2669267f, -0.06795155f, -0.31534106f, 0.23762932f, 0.029086566f, -0.25425115f, 0.32986248f, -0.40860024f, 0.0021219333f, -0.11023997f, -0.11030445f, 0.0299803f, -0.35953605f, -0.09839821f, 0.08498421f, 0.10230655f, -0.18306464f, -0.01142244f, -0.0030834735f, 0.21525359f, 0.27213895f, 0.024897715f, -0.5647454f, 0.32765466f, -0.026938727f, -0.17003876f, -0.11704402f, -0.21879314f, -0.076654814f, 0.44720697f, -0.14875004f, -0.121339455f, 0.081910394f, 0.33264548f, -0.24673231f, 0.052444614f, -0.25550485f, -0.27946505f, -0.35103256f, 0.20423386f, -0.026111674f, 0.3193076f, 0.1226086f, 0.34025386f, 0.09384092f, -0.09158789f, 0.28329265f, -0.46950442f, 0.004954518f, -0.037283123f, -0.12930717f, -0.123136826f, 0.23366229f, -0.15121494f, -0.3740459f, 0.34756145f, -0.2309533f, 0.05446153f, -0.035335205f, -0.23112707f, 0.37518498f, -0.15987936f, 0.15280819f, -0.28512067f, -0.44014674f, 0.34254652f, -0.06797557f, 0.13973106f, -0.076047786f, 0.13055292f, 0.150427f, -0.41765139f, -0.064429745f, 0.022636555f, 0.19231942f, 0.10998784f, -0.54035896f, 0.12970482f, 0.24624574f, -0.30967274f, -0.27107233f, 0.2654354f, -0.3946166f, -0.17546429f, 0.18178125f, 0.28406292f, -0.2897076f, -0.2699949f, 0.13247894f, -0.48874146f, 0.2285941f, 0.016229441f, -0.044555705f, -0.0045704786f, 0.13754566f, -0.014022427f, 0.20134054f, -0.022301245f, 0.044742037f, -0.30828437f, 0.07682277f, 0.40609014f, -0.2922656f, -0.18185575f, -0.13769087f, -0.12043669f, 0.16744488f, -0.16275997f, 0.2906651f, -0.2405936f, -0.10014426f, 0.19697535f, -0.1941438f, 0.10565454f, 0.122810185f, 0.11256854f, 0.38054436f, -0.41619015f, 0.22552358f, -0.49270666f, -0.081647985f, -0.17987645f, 0.28806102f, 0.101734415f, -0.35943964f, 0.24599215f, -0.37823212f, 0.3765455f, -0.21610668f, 0.26646522f, -0.15142575f, -0.40553266f, 0.074081175f, 0.06470282f, -0.4962056f, 0.12499493f, 0.16612706f, -0.309712f, 0.14327149f, 0.18719724f, -0.4788889f, -0.045166813f, -0.03891538f, -0.12156288f, 0.0079445895f, 0.4122564f, -0.18322206f, 0.0072056996f, -0.06562932f, 0.03057791f, 0.07201092f, -0.04087917f, 0.37824878f, 0.22618644f, 0.06822924f, -0.5561631f, -0.28938422f, -0.2179096f, -0.6191988f, 0.40655988f, 0.11788739f, -0.42953134f, -0.155632f, -0.35105297f, 0.19460869f, 0.1864733f, -0.44844165f, -0.05967991f};

float  dense2_bias[6] = {0.013675732f, 0.022020398f, -0.051250465f, -0.023483822f, 0.023751557f, 0.010866305f};

